digraph Tree {
node [shape=box] ;
0 [label="Income <= 113.5\ngini = 0.174\nsamples = 5000\nvalue = [4520, 480]"] ;
1 [label="CCAvg <= 2.95\ngini = 0.041\nsamples = 4021\nvalue = [3937, 84]"] ;
0 -> 1 [labeldistance=2.5, labelangle=45, headlabel="True"] ;
2 [label="Income <= 106.5\ngini = 0.007\nsamples = 3723\nvalue = [3710, 13]"] ;
1 -> 2 ;
3 [label="gini = 0.0\nsamples = 3629\nvalue = [3629, 0]"] ;
2 -> 3 ;
4 [label="Education <= 1.5\ngini = 0.238\nsamples = 94\nvalue = [81, 13]"] ;
2 -> 4 ;
5 [label="CD Account <= 0.5\ngini = 0.127\nsamples = 44\nvalue = [41, 3]"] ;
4 -> 5 ;
6 [label="CCAvg <= 0.25\ngini = 0.093\nsamples = 41\nvalue = [39, 2]"] ;
5 -> 6 ;
7 [label="gini = 0.219\nsamples = 8\nvalue = [7, 1]"] ;
6 -> 7 ;
8 [label="gini = 0.059\nsamples = 33\nvalue = [32, 1]"] ;
6 -> 8 ;
9 [label="CCAvg <= 1.35\ngini = 0.444\nsamples = 3\nvalue = [2, 1]"] ;
5 -> 9 ;
10 [label="gini = 0.0\nsamples = 1\nvalue = [0, 1]"] ;
9 -> 10 ;
11 [label="gini = 0.0\nsamples = 2\nvalue = [2, 0]"] ;
9 -> 11 ;
12 [label="CCAvg <= 1.65\ngini = 0.32\nsamples = 50\nvalue = [40, 10]"] ;
4 -> 12 ;
13 [label="CCAvg <= 0.3\ngini = 0.457\nsamples = 17\nvalue = [11, 6]"] ;
12 -> 13 ;
14 [label="gini = 0.0\nsamples = 3\nvalue = [3, 0]"] ;
13 -> 14 ;
15 [label="gini = 0.49\nsamples = 14\nvalue = [8, 6]"] ;
13 -> 15 ;
16 [label="Income <= 108.5\ngini = 0.213\nsamples = 33\nvalue = [29, 4]"] ;
12 -> 16 ;
17 [label="gini = 0.5\nsamples = 4\nvalue = [2, 2]"] ;
16 -> 17 ;
18 [label="gini = 0.128\nsamples = 29\nvalue = [27, 2]"] ;
16 -> 18 ;
19 [label="CD Account <= 0.5\ngini = 0.363\nsamples = 298\nvalue = [227, 71]"] ;
1 -> 19 ;
20 [label="Income <= 92.5\ngini = 0.305\nsamples = 272\nvalue = [221, 51]"] ;
19 -> 20 ;
21 [label="CCAvg <= 3.65\ngini = 0.176\nsamples = 174\nvalue = [157, 17]"] ;
20 -> 21 ;
22 [label="Income <= 82.5\ngini = 0.268\nsamples = 88\nvalue = [74, 14]"] ;
21 -> 22 ;
23 [label="gini = 0.172\nsamples = 63\nvalue = [57, 6]"] ;
22 -> 23 ;
24 [label="gini = 0.435\nsamples = 25\nvalue = [17, 8]"] ;
22 -> 24 ;
25 [label="CCAvg <= 3.95\ngini = 0.067\nsamples = 86\nvalue = [83, 3]"] ;
21 -> 25 ;
26 [label="gini = 0.149\nsamples = 37\nvalue = [34, 3]"] ;
25 -> 26 ;
27 [label="gini = 0.0\nsamples = 49\nvalue = [49, 0]"] ;
25 -> 27 ;
28 [label="Education <= 1.5\ngini = 0.453\nsamples = 98\nvalue = [64, 34]"] ;
20 -> 28 ;
29 [label="CCAvg <= 3.75\ngini = 0.163\nsamples = 56\nvalue = [51, 5]"] ;
28 -> 29 ;
30 [label="gini = 0.375\nsamples = 12\nvalue = [9, 3]"] ;
29 -> 30 ;
31 [label="gini = 0.087\nsamples = 44\nvalue = [42, 2]"] ;
29 -> 31 ;
32 [label="CCAvg <= 4.6\ngini = 0.427\nsamples = 42\nvalue = [13, 29]"] ;
28 -> 32 ;
33 [label="gini = 0.461\nsamples = 36\nvalue = [13, 23]"] ;
32 -> 33 ;
34 [label="gini = 0.0\nsamples = 6\nvalue = [0, 6]"] ;
32 -> 34 ;
35 [label="CCAvg <= 3.85\ngini = 0.355\nsamples = 26\nvalue = [6, 20]"] ;
19 -> 35 ;
36 [label="gini = 0.0\nsamples = 11\nvalue = [0, 11]"] ;
35 -> 36 ;
37 [label="Education <= 2.5\ngini = 0.48\nsamples = 15\nvalue = [6, 9]"] ;
35 -> 37 ;
38 [label="Education <= 1.5\ngini = 0.397\nsamples = 11\nvalue = [3, 8]"] ;
37 -> 38 ;
39 [label="gini = 0.469\nsamples = 8\nvalue = [3, 5]"] ;
38 -> 39 ;
40 [label="gini = 0.0\nsamples = 3\nvalue = [0, 3]"] ;
38 -> 40 ;
41 [label="Income <= 107.0\ngini = 0.375\nsamples = 4\nvalue = [3, 1]"] ;
37 -> 41 ;
42 [label="gini = 0.0\nsamples = 3\nvalue = [3, 0]"] ;
41 -> 42 ;
43 [label="gini = 0.0\nsamples = 1\nvalue = [0, 1]"] ;
41 -> 43 ;
44 [label="Education <= 1.5\ngini = 0.482\nsamples = 979\nvalue = [583, 396]"] ;
0 -> 44 [labeldistance=2.5, labelangle=-45, headlabel="False"] ;
45 [label="CD Account <= 0.5\ngini = 0.194\nsamples = 635\nvalue = [566, 69]"] ;
44 -> 45 ;
46 [label="CCAvg <= 6.633\ngini = 0.146\nsamples = 591\nvalue = [544, 47]"] ;
45 -> 46 ;
47 [label="CCAvg <= 6.55\ngini = 0.171\nsamples = 465\nvalue = [421, 44]"] ;
46 -> 47 ;
48 [label="CCAvg <= 5.25\ngini = 0.168\nsamples = 464\nvalue = [421, 43]"] ;
47 -> 48 ;
49 [label="gini = 0.147\nsamples = 402\nvalue = [370, 32]"] ;
48 -> 49 ;
50 [label="gini = 0.292\nsamples = 62\nvalue = [51, 11]"] ;
48 -> 50 ;
51 [label="gini = 0.0\nsamples = 1\nvalue = [0, 1]"] ;
47 -> 51 ;
52 [label="Income <= 183.5\ngini = 0.046\nsamples = 126\nvalue = [123, 3]"] ;
46 -> 52 ;
53 [label="CCAvg <= 6.95\ngini = 0.019\nsamples = 106\nvalue = [105, 1]"] ;
52 -> 53 ;
54 [label="gini = 0.071\nsamples = 27\nvalue = [26, 1]"] ;
53 -> 54 ;
55 [label="gini = 0.0\nsamples = 79\nvalue = [79, 0]"] ;
53 -> 55 ;
56 [label="Income <= 186.5\ngini = 0.18\nsamples = 20\nvalue = [18, 2]"] ;
52 -> 56 ;
57 [label="gini = 0.5\nsamples = 4\nvalue = [2, 2]"] ;
56 -> 57 ;
58 [label="gini = 0.0\nsamples = 16\nvalue = [16, 0]"] ;
56 -> 58 ;
59 [label="Income <= 167.0\ngini = 0.5\nsamples = 44\nvalue = [22, 22]"] ;
45 -> 59 ;
60 [label="CCAvg <= 5.95\ngini = 0.475\nsamples = 31\nvalue = [19, 12]"] ;
59 -> 60 ;
61 [label="CCAvg <= 4.617\ngini = 0.499\nsamples = 23\nvalue = [12, 11]"] ;
60 -> 61 ;
62 [label="gini = 0.43\nsamples = 16\nvalue = [11, 5]"] ;
61 -> 62 ;
63 [label="gini = 0.245\nsamples = 7\nvalue = [1, 6]"] ;
61 -> 63 ;
64 [label="Income <= 143.0\ngini = 0.219\nsamples = 8\nvalue = [7, 1]"] ;
60 -> 64 ;
65 [label="gini = 0.444\nsamples = 3\nvalue = [2, 1]"] ;
64 -> 65 ;
66 [label="gini = 0.0\nsamples = 5\nvalue = [5, 0]"] ;
64 -> 66 ;
67 [label="CCAvg <= 5.125\ngini = 0.355\nsamples = 13\nvalue = [3, 10]"] ;
59 -> 67 ;
68 [label="gini = 0.0\nsamples = 8\nvalue = [0, 8]"] ;
67 -> 68 ;
69 [label="Income <= 179.5\ngini = 0.48\nsamples = 5\nvalue = [3, 2]"] ;
67 -> 69 ;
70 [label="gini = 0.0\nsamples = 2\nvalue = [0, 2]"] ;
69 -> 70 ;
71 [label="gini = 0.0\nsamples = 3\nvalue = [3, 0]"] ;
69 -> 71 ;
72 [label="Income <= 116.5\ngini = 0.094\nsamples = 344\nvalue = [17, 327]"] ;
44 -> 72 ;
73 [label="CCAvg <= 2.15\ngini = 0.491\nsamples = 30\nvalue = [17, 13]"] ;
72 -> 73 ;
74 [label="CCAvg <= 0.55\ngini = 0.26\nsamples = 13\nvalue = [11, 2]"] ;
73 -> 74 ;
75 [label="gini = 0.0\nsamples = 1\nvalue = [0, 1]"] ;
74 -> 75 ;
76 [label="Income <= 114.5\ngini = 0.153\nsamples = 12\nvalue = [11, 1]"] ;
74 -> 76 ;
77 [label="gini = 0.0\nsamples = 7\nvalue = [7, 0]"] ;
76 -> 77 ;
78 [label="gini = 0.32\nsamples = 5\nvalue = [4, 1]"] ;
76 -> 78 ;
79 [label="CCAvg <= 4.0\ngini = 0.457\nsamples = 17\nvalue = [6, 11]"] ;
73 -> 79 ;
80 [label="CCAvg <= 3.35\ngini = 0.497\nsamples = 13\nvalue = [6, 7]"] ;
79 -> 80 ;
81 [label="gini = 0.444\nsamples = 9\nvalue = [3, 6]"] ;
80 -> 81 ;
82 [label="gini = 0.375\nsamples = 4\nvalue = [3, 1]"] ;
80 -> 82 ;
83 [label="gini = 0.0\nsamples = 4\nvalue = [0, 4]"] ;
79 -> 83 ;
84 [label="gini = 0.0\nsamples = 314\nvalue = [0, 314]"] ;
72 -> 84 ;
}